digraph Tree {
node [shape=box, style="filled, rounded", color="black", fontname=helvetica] ;
edge [fontname=helvetica] ;
0 [label=<X<SUB>75</SUB> &le; 0.5<br/>mse = 83.02<br/>samples = 19330<br/>value = 39.32>, fillcolor="#f2c19e"] ;
1 [label=<X<SUB>95</SUB> &le; 0.5<br/>mse = 108.54<br/>samples = 4262<br/>value = 41.71>, fillcolor="#eeae80"] ;
0 -> 1 [labeldistance=2.5, labelangle=45, headlabel="True"] ;
2 [label=<X<SUB>101</SUB> &le; 0.5<br/>mse = 100.5<br/>samples = 2607<br/>value = 40.46>, fillcolor="#f0b890"] ;
1 -> 2 ;
3 [label=<X<SUB>58</SUB> &le; 0.5<br/>mse = 92.37<br/>samples = 2369<br/>value = 40.0>, fillcolor="#f1bc95"] ;
2 -> 3 ;
4 [label=<X<SUB>80</SUB> &le; 0.5<br/>mse = 67.3<br/>samples = 510<br/>value = 38.4>, fillcolor="#f4c9aa"] ;
3 -> 4 ;
5 [label=<mse = 52.82<br/>samples = 229<br/>value = 39.42>, fillcolor="#f2c09d"] ;
4 -> 5 ;
6 [label=<mse = 77.58<br/>samples = 281<br/>value = 37.57>, fillcolor="#f5cfb4"] ;
4 -> 6 ;
7 [label=<X<SUB>148</SUB> &le; 0.5<br/>mse = 98.36<br/>samples = 1859<br/>value = 40.44>, fillcolor="#f0b890"] ;
3 -> 7 ;
8 [label=<X<SUB>135</SUB> &le; 0.5<br/>mse = 110.56<br/>samples = 711<br/>value = 41.44>, fillcolor="#efb083"] ;
7 -> 8 ;
9 [label=<X<SUB>131</SUB> &le; 0.5<br/>mse = 101.07<br/>samples = 510<br/>value = 40.79>, fillcolor="#f0b58b"] ;
8 -> 9 ;
10 [label=<mse = 95.21<br/>samples = 294<br/>value = 41.28>, fillcolor="#efb285"] ;
9 -> 10 ;
11 [label=<mse = 108.28<br/>samples = 216<br/>value = 40.12>, fillcolor="#f1bb94"] ;
9 -> 11 ;
12 [label=<mse = 130.82<br/>samples = 201<br/>value = 43.08>, fillcolor="#eca36e"] ;
8 -> 12 ;
13 [label=<X<SUB>28</SUB> &le; 0.5<br/>mse = 89.8<br/>samples = 1148<br/>value = 39.82>, fillcolor="#f1bd98"] ;
7 -> 13 ;
14 [label=<X<SUB>48</SUB> &le; 0.5<br/>mse = 85.84<br/>samples = 861<br/>value = 40.16>, fillcolor="#f1bb93"] ;
13 -> 14 ;
15 [label=<X<SUB>80</SUB> &le; 0.5<br/>mse = 89.2<br/>samples = 596<br/>value = 40.62>, fillcolor="#f0b78e"] ;
14 -> 15 ;
16 [label=<mse = 100.76<br/>samples = 369<br/>value = 41.17>, fillcolor="#efb287"] ;
15 -> 16 ;
17 [label=<mse = 69.07<br/>samples = 227<br/>value = 39.71>, fillcolor="#f2be99"] ;
15 -> 17 ;
18 [label=<mse = 76.74<br/>samples = 265<br/>value = 39.12>, fillcolor="#f3c3a0"] ;
14 -> 18 ;
19 [label=<mse = 100.3<br/>samples = 287<br/>value = 38.79>, fillcolor="#f3c5a5"] ;
13 -> 19 ;
20 [label=<mse = 157.99<br/>samples = 238<br/>value = 45.07>, fillcolor="#e99355"] ;
2 -> 20 ;
21 [label=<X<SUB>7</SUB> &le; 0.5<br/>mse = 114.91<br/>samples = 1655<br/>value = 43.67>, fillcolor="#eb9e67"] ;
1 -> 21 ;
22 [label=<X<SUB>58</SUB> &le; 0.5<br/>mse = 128.53<br/>samples = 1350<br/>value = 44.37>, fillcolor="#ea995e"] ;
21 -> 22 ;
23 [label=<mse = 102.19<br/>samples = 379<br/>value = 42.36>, fillcolor="#eda978"] ;
22 -> 23 ;
24 [label=<X<SUB>8</SUB> &le; 0.5<br/>mse = 136.61<br/>samples = 971<br/>value = 45.16>, fillcolor="#e99254"] ;
22 -> 24 ;
25 [label=<X<SUB>139</SUB> &le; 0.5<br/>mse = 118.24<br/>samples = 663<br/>value = 44.16>, fillcolor="#ea9a61"] ;
24 -> 25 ;
26 [label=<mse = 125.86<br/>samples = 328<br/>value = 45.32>, fillcolor="#e89152"] ;
25 -> 26 ;
27 [label=<mse = 108.17<br/>samples = 335<br/>value = 43.02>, fillcolor="#eca46f"] ;
25 -> 27 ;
28 [label=<mse = 169.32<br/>samples = 308<br/>value = 47.32>, fillcolor="#e58139"] ;
24 -> 28 ;
29 [label=<mse = 42.68<br/>samples = 305<br/>value = 40.55>, fillcolor="#f0b78e"] ;
21 -> 29 ;
30 [label=<X<SUB>95</SUB> &le; 0.5<br/>mse = 73.74<br/>samples = 15068<br/>value = 38.65>, fillcolor="#f3c7a6"] ;
0 -> 30 [labeldistance=2.5, labelangle=-45, headlabel="False"] ;
31 [label=<X<SUB>8</SUB> &le; 0.5<br/>mse = 70.8<br/>samples = 10086<br/>value = 38.03>, fillcolor="#f4ccae"] ;
30 -> 31 ;
32 [label=<X<SUB>73</SUB> &le; 0.5<br/>mse = 44.12<br/>samples = 6732<br/>value = 38.69>, fillcolor="#f3c6a6"] ;
31 -> 32 ;
33 [label=<X<SUB>60</SUB> &le; 0.5<br/>mse = 42.7<br/>samples = 6529<br/>value = 38.59>, fillcolor="#f3c7a7"] ;
32 -> 33 ;
34 [label=<X<SUB>40</SUB> &le; 0.5<br/>mse = 41.76<br/>samples = 6222<br/>value = 38.48>, fillcolor="#f4c8a9"] ;
33 -> 34 ;
35 [label=<X<SUB>41</SUB> &le; 0.5<br/>mse = 41.34<br/>samples = 4091<br/>value = 38.82>, fillcolor="#f3c5a4"] ;
34 -> 35 ;
36 [label=<X<SUB>49</SUB> &le; 0.5<br/>mse = 42.06<br/>samples = 1975<br/>value = 39.32>, fillcolor="#f2c19e"] ;
35 -> 36 ;
37 [label=<X<SUB>58</SUB> &le; 0.5<br/>mse = 43.92<br/>samples = 1551<br/>value = 39.55>, fillcolor="#f2bf9b"] ;
36 -> 37 ;
38 [label=<X<SUB>114</SUB> &le; 0.5<br/>mse = 36.6<br/>samples = 1025<br/>value = 39.16>, fillcolor="#f3c3a0"] ;
37 -> 38 ;
39 [label=<X<SUB>142</SUB> &le; 0.5<br/>mse = 38.92<br/>samples = 763<br/>value = 39.4>, fillcolor="#f2c19d"] ;
38 -> 39 ;
40 [label=<X<SUB>131</SUB> &le; 0.5<br/>mse = 38.22<br/>samples = 517<br/>value = 39.78>, fillcolor="#f1be98"] ;
39 -> 40 ;
41 [label=<mse = 43.44<br/>samples = 250<br/>value = 40.12>, fillcolor="#f1bb94"] ;
40 -> 41 ;
42 [label=<mse = 33.12<br/>samples = 267<br/>value = 39.46>, fillcolor="#f2c09c"] ;
40 -> 42 ;
43 [label=<mse = 39.45<br/>samples = 246<br/>value = 38.61>, fillcolor="#f3c7a7"] ;
39 -> 43 ;
44 [label=<mse = 29.21<br/>samples = 262<br/>value = 38.46>, fillcolor="#f4c8a9"] ;
38 -> 44 ;
45 [label=<X<SUB>148</SUB> &le; 0.5<br/>mse = 57.29<br/>samples = 526<br/>value = 40.32>, fillcolor="#f1b991"] ;
37 -> 45 ;
46 [label=<mse = 56.02<br/>samples = 218<br/>value = 41.19>, fillcolor="#efb286"] ;
45 -> 46 ;
47 [label=<mse = 57.27<br/>samples = 308<br/>value = 39.7>, fillcolor="#f2be99"] ;
45 -> 47 ;
48 [label=<X<SUB>5</SUB> &le; 0.5<br/>mse = 34.32<br/>samples = 424<br/>value = 38.46>, fillcolor="#f4c8a9"] ;
36 -> 48 ;
49 [label=<mse = 24.49<br/>samples = 223<br/>value = 38.85>, fillcolor="#f3c5a4"] ;
48 -> 49 ;
50 [label=<mse = 44.88<br/>samples = 201<br/>value = 38.02>, fillcolor="#f4ccae"] ;
48 -> 50 ;
51 [label=<X<SUB>7</SUB> &le; 0.5<br/>mse = 40.21<br/>samples = 2116<br/>value = 38.35>, fillcolor="#f4c9aa"] ;
35 -> 51 ;
52 [label=<X<SUB>131</SUB> &le; 0.5<br/>mse = 62.48<br/>samples = 1223<br/>value = 37.94>, fillcolor="#f5ccaf"] ;
51 -> 52 ;
53 [label=<X<SUB>106</SUB> &le; 0.5<br/>mse = 57.36<br/>samples = 544<br/>value = 38.89>, fillcolor="#f3c5a3"] ;
52 -> 53 ;
54 [label=<mse = 55.57<br/>samples = 257<br/>value = 39.5>, fillcolor="#f2c09c"] ;
53 -> 54 ;
55 [label=<mse = 58.31<br/>samples = 287<br/>value = 38.34>, fillcolor="#f4c9aa"] ;
53 -> 55 ;
56 [label=<X<SUB>5</SUB> &le; 0.5<br/>mse = 65.3<br/>samples = 679<br/>value = 37.18>, fillcolor="#f6d2b9"] ;
52 -> 56 ;
57 [label=<mse = 59.57<br/>samples = 212<br/>value = 36.23>, fillcolor="#f7dac5"] ;
56 -> 57 ;
58 [label=<X<SUB>106</SUB> &le; 0.5<br/>mse = 67.31<br/>samples = 467<br/>value = 37.61>, fillcolor="#f5cfb4"] ;
56 -> 58 ;
59 [label=<mse = 64.11<br/>samples = 214<br/>value = 37.26>, fillcolor="#f6d2b8"] ;
58 -> 59 ;
60 [label=<mse = 69.82<br/>samples = 253<br/>value = 37.91>, fillcolor="#f5cdb0"] ;
58 -> 60 ;
61 [label=<X<SUB>59</SUB> &le; 0.5<br/>mse = 9.15<br/>samples = 893<br/>value = 38.92>, fillcolor="#f3c4a3"] ;
51 -> 61 ;
62 [label=<X<SUB>148</SUB> &le; 0.5<br/>mse = 13.87<br/>samples = 544<br/>value = 38.67>, fillcolor="#f3c6a6"] ;
61 -> 62 ;
63 [label=<mse = 18.84<br/>samples = 300<br/>value = 38.5>, fillcolor="#f4c8a8"] ;
62 -> 63 ;
64 [label=<mse = 7.66<br/>samples = 244<br/>value = 38.88>, fillcolor="#f3c5a4"] ;
62 -> 64 ;
65 [label=<mse = 1.55<br/>samples = 349<br/>value = 39.31>, fillcolor="#f2c19e"] ;
61 -> 65 ;
66 [label=<X<SUB>7</SUB> &le; 0.5<br/>mse = 41.92<br/>samples = 2131<br/>value = 37.83>, fillcolor="#f5cdb1"] ;
34 -> 66 ;
67 [label=<X<SUB>1</SUB> &le; 0.5<br/>mse = 63.83<br/>samples = 1247<br/>value = 37.11>, fillcolor="#f6d3ba"] ;
66 -> 67 ;
68 [label=<X<SUB>127</SUB> &le; 0.5<br/>mse = 65.1<br/>samples = 821<br/>value = 37.48>, fillcolor="#f5d0b5"] ;
67 -> 68 ;
69 [label=<X<SUB>123</SUB> &le; 0.5<br/>mse = 66.51<br/>samples = 565<br/>value = 37.17>, fillcolor="#f6d3b9"] ;
68 -> 69 ;
70 [label=<mse = 63.69<br/>samples = 276<br/>value = 36.6>, fillcolor="#f7d7c0"] ;
69 -> 70 ;
71 [label=<mse = 68.62<br/>samples = 289<br/>value = 37.7>, fillcolor="#f5ceb2"] ;
69 -> 71 ;
72 [label=<mse = 61.29<br/>samples = 256<br/>value = 38.18>, fillcolor="#f4caac"] ;
68 -> 72 ;
73 [label=<X<SUB>106</SUB> &le; 0.5<br/>mse = 60.57<br/>samples = 426<br/>value = 36.38>, fillcolor="#f7d9c3"] ;
67 -> 73 ;
74 [label=<mse = 64.95<br/>samples = 208<br/>value = 35.65>, fillcolor="#f8dfcc"] ;
73 -> 74 ;
75 [label=<mse = 55.39<br/>samples = 218<br/>value = 37.08>, fillcolor="#f6d3ba"] ;
73 -> 75 ;
76 [label=<X<SUB>59</SUB> &le; 0.5<br/>mse = 9.25<br/>samples = 884<br/>value = 38.84>, fillcolor="#f3c5a4"] ;
66 -> 76 ;
77 [label=<X<SUB>123</SUB> &le; 0.5<br/>mse = 11.95<br/>samples = 552<br/>value = 38.68>, fillcolor="#f3c6a6"] ;
76 -> 77 ;
78 [label=<mse = 19.11<br/>samples = 275<br/>value = 38.44>, fillcolor="#f4c8a9"] ;
77 -> 78 ;
79 [label=<mse = 4.73<br/>samples = 277<br/>value = 38.91>, fillcolor="#f3c4a3"] ;
77 -> 79 ;
80 [label=<mse = 4.64<br/>samples = 332<br/>value = 39.11>, fillcolor="#f3c3a1"] ;
76 -> 80 ;
81 [label=<mse = 56.31<br/>samples = 307<br/>value = 40.86>, fillcolor="#f0b58b"] ;
33 -> 81 ;
82 [label=<mse = 80.29<br/>samples = 203<br/>value = 41.75>, fillcolor="#eeae7f"] ;
32 -> 82 ;
83 [label=<X<SUB>60</SUB> &le; 0.5<br/>mse = 121.73<br/>samples = 3354<br/>value = 36.71>, fillcolor="#f7d6bf"] ;
31 -> 83 ;
84 [label=<X<SUB>131</SUB> &le; 0.5<br/>mse = 119.95<br/>samples = 3103<br/>value = 36.3>, fillcolor="#f7d9c4"] ;
83 -> 84 ;
85 [label=<X<SUB>21</SUB> &le; 0.5<br/>mse = 122.9<br/>samples = 1456<br/>value = 37.64>, fillcolor="#f5cfb3"] ;
84 -> 85 ;
86 [label=<X<SUB>58</SUB> &le; 0.5<br/>mse = 125.57<br/>samples = 939<br/>value = 38.5>, fillcolor="#f4c8a8"] ;
85 -> 86 ;
87 [label=<X<SUB>114</SUB> &le; 0.5<br/>mse = 107.03<br/>samples = 577<br/>value = 37.52>, fillcolor="#f5d0b5"] ;
86 -> 87 ;
88 [label=<mse = 117.28<br/>samples = 360<br/>value = 36.92>, fillcolor="#f6d5bc"] ;
87 -> 88 ;
89 [label=<mse = 88.44<br/>samples = 217<br/>value = 38.51>, fillcolor="#f4c8a8"] ;
87 -> 89 ;
90 [label=<mse = 151.16<br/>samples = 362<br/>value = 40.06>, fillcolor="#f1bb95"] ;
86 -> 90 ;
91 [label=<X<SUB>58</SUB> &le; 0.5<br/>mse = 114.26<br/>samples = 517<br/>value = 36.07>, fillcolor="#f8dbc7"] ;
85 -> 91 ;
92 [label=<mse = 101.3<br/>samples = 298<br/>value = 35.46>, fillcolor="#f9e0cf"] ;
91 -> 92 ;
93 [label=<mse = 130.72<br/>samples = 219<br/>value = 36.9>, fillcolor="#f6d5bc"] ;
91 -> 93 ;
94 [label=<X<SUB>40</SUB> &le; 0.5<br/>mse = 114.39<br/>samples = 1647<br/>value = 35.13>, fillcolor="#f9e3d3"] ;
84 -> 94 ;
95 [label=<X<SUB>58</SUB> &le; 0.5<br/>mse = 119.39<br/>samples = 926<br/>value = 36.16>, fillcolor="#f7dbc6"] ;
94 -> 95 ;
96 [label=<X<SUB>57</SUB> &le; 0.5<br/>mse = 101.04<br/>samples = 594<br/>value = 35.02>, fillcolor="#f9e4d4"] ;
95 -> 96 ;
97 [label=<mse = 91.8<br/>samples = 363<br/>value = 35.67>, fillcolor="#f8dfcc"] ;
96 -> 97 ;
98 [label=<mse = 113.84<br/>samples = 231<br/>value = 34.0>, fillcolor="#fbece1"] ;
96 -> 98 ;
99 [label=<mse = 145.76<br/>samples = 332<br/>value = 38.2>, fillcolor="#f4caac"] ;
95 -> 99 ;
100 [label=<X<SUB>127</SUB> &le; 0.5<br/>mse = 104.84<br/>samples = 721<br/>value = 33.8>, fillcolor="#fbeee4"] ;
94 -> 100 ;
101 [label=<X<SUB>15</SUB> &le; 0.5<br/>mse = 104.63<br/>samples = 496<br/>value = 32.88>, fillcolor="#fdf5ef"] ;
100 -> 101 ;
102 [label=<mse = 103.87<br/>samples = 276<br/>value = 31.63>, fillcolor="#ffffff"] ;
101 -> 102 ;
103 [label=<mse = 101.18<br/>samples = 220<br/>value = 34.44>, fillcolor="#fae8db"] ;
101 -> 103 ;
104 [label=<mse = 99.29<br/>samples = 225<br/>value = 35.83>, fillcolor="#f8ddca"] ;
100 -> 104 ;
105 [label=<mse = 116.73<br/>samples = 251<br/>value = 41.71>, fillcolor="#eeae80"] ;
83 -> 105 ;
106 [label=<X<SUB>58</SUB> &le; 0.5<br/>mse = 77.34<br/>samples = 4982<br/>value = 39.91>, fillcolor="#f1bd97"] ;
30 -> 106 ;
107 [label=<X<SUB>134</SUB> &le; 0.5<br/>mse = 67.56<br/>samples = 3627<br/>value = 39.4>, fillcolor="#f2c19d"] ;
106 -> 107 ;
108 [label=<X<SUB>8</SUB> &le; 0.5<br/>mse = 65.58<br/>samples = 3389<br/>value = 39.21>, fillcolor="#f2c29f"] ;
107 -> 108 ;
109 [label=<X<SUB>40</SUB> &le; 0.5<br/>mse = 53.25<br/>samples = 2499<br/>value = 39.6>, fillcolor="#f2bf9a"] ;
108 -> 109 ;
110 [label=<X<SUB>139</SUB> &le; 0.5<br/>mse = 53.97<br/>samples = 2229<br/>value = 39.79>, fillcolor="#f1bd98"] ;
109 -> 110 ;
111 [label=<X<SUB>5</SUB> &le; 0.5<br/>mse = 57.18<br/>samples = 583<br/>value = 40.82>, fillcolor="#f0b58b"] ;
110 -> 111 ;
112 [label=<mse = 28.21<br/>samples = 216<br/>value = 39.4>, fillcolor="#f2c19d"] ;
111 -> 112 ;
113 [label=<mse = 72.34<br/>samples = 367<br/>value = 41.66>, fillcolor="#eeae80"] ;
111 -> 113 ;
114 [label=<X<SUB>132</SUB> &le; 0.5<br/>mse = 52.32<br/>samples = 1646<br/>value = 39.42>, fillcolor="#f2c09d"] ;
110 -> 114 ;
115 [label=<X<SUB>25</SUB> &le; 0.5<br/>mse = 51.11<br/>samples = 1199<br/>value = 39.07>, fillcolor="#f3c3a1"] ;
114 -> 115 ;
116 [label=<X<SUB>153</SUB> &le; 0.5<br/>mse = 49.71<br/>samples = 977<br/>value = 38.75>, fillcolor="#f3c6a5"] ;
115 -> 116 ;
117 [label=<X<SUB>53</SUB> &le; 0.5<br/>mse = 63.75<br/>samples = 647<br/>value = 38.31>, fillcolor="#f4c9ab"] ;
116 -> 117 ;
118 [label=<X<SUB>57</SUB> &le; 0.5<br/>mse = 66.22<br/>samples = 435<br/>value = 37.94>, fillcolor="#f5ccaf"] ;
117 -> 118 ;
119 [label=<mse = 63.98<br/>samples = 209<br/>value = 37.64>, fillcolor="#f5cfb3"] ;
118 -> 119 ;
120 [label=<mse = 68.13<br/>samples = 226<br/>value = 38.22>, fillcolor="#f4caac"] ;
118 -> 120 ;
121 [label=<mse = 57.84<br/>samples = 212<br/>value = 39.06>, fillcolor="#f3c3a1"] ;
117 -> 121 ;
122 [label=<mse = 21.04<br/>samples = 330<br/>value = 39.62>, fillcolor="#f2bf9a"] ;
116 -> 122 ;
123 [label=<mse = 54.84<br/>samples = 222<br/>value = 40.47>, fillcolor="#f0b88f"] ;
115 -> 123 ;
124 [label=<mse = 54.33<br/>samples = 447<br/>value = 40.37>, fillcolor="#f1b991"] ;
114 -> 124 ;
125 [label=<mse = 44.48<br/>samples = 270<br/>value = 37.99>, fillcolor="#f4ccaf"] ;
109 -> 125 ;
126 [label=<X<SUB>153</SUB> &le; 0.5<br/>mse = 98.62<br/>samples = 890<br/>value = 38.14>, fillcolor="#f4cbad"] ;
108 -> 126 ;
127 [label=<X<SUB>144</SUB> &le; 0.5<br/>mse = 119.14<br/>samples = 650<br/>value = 37.41>, fillcolor="#f5d1b6"] ;
126 -> 127 ;
128 [label=<mse = 113.62<br/>samples = 442<br/>value = 36.51>, fillcolor="#f7d8c1"] ;
127 -> 128 ;
129 [label=<mse = 125.47<br/>samples = 208<br/>value = 39.33>, fillcolor="#f2c19e"] ;
127 -> 129 ;
130 [label=<mse = 37.7<br/>samples = 240<br/>value = 40.12>, fillcolor="#f1bb94"] ;
126 -> 130 ;
131 [label=<mse = 88.23<br/>samples = 238<br/>value = 42.05>, fillcolor="#eeab7b"] ;
107 -> 131 ;
132 [label=<X<SUB>7</SUB> &le; 0.5<br/>mse = 101.01<br/>samples = 1355<br/>value = 41.26>, fillcolor="#efb286"] ;
106 -> 132 ;
133 [label=<X<SUB>57</SUB> &le; 0.5<br/>mse = 130.62<br/>samples = 998<br/>value = 41.91>, fillcolor="#eeac7d"] ;
132 -> 133 ;
134 [label=<X<SUB>5</SUB> &le; 0.5<br/>mse = 136.4<br/>samples = 723<br/>value = 42.57>, fillcolor="#eda775"] ;
133 -> 134 ;
135 [label=<mse = 169.34<br/>samples = 324<br/>value = 43.82>, fillcolor="#eb9d65"] ;
134 -> 135 ;
136 [label=<mse = 107.34<br/>samples = 399<br/>value = 41.55>, fillcolor="#efaf82"] ;
134 -> 136 ;
137 [label=<mse = 111.3<br/>samples = 275<br/>value = 40.18>, fillcolor="#f1ba93"] ;
133 -> 137 ;
138 [label=<mse = 13.72<br/>samples = 357<br/>value = 39.44>, fillcolor="#f2c09c"] ;
132 -> 138 ;
}